{"inputSize":49,"hiddenSizes":[16,8],"outputSize":3,"weights":[[[0.4175510908635369,0.1999522008048662,0.5792772631075424,0.8142621667852293,0.6982245091039835,0.24242438392202337,0.38578685255998946,0.580612796204139,0.006956341732162197,0.39087640646089805,0.7899363196462426,0.2641029105644985,0.6766670120033889,0.5077822477042332,0.10937008573723117,0.4180451391550487],[0.7534595120531152,0.5617332510432707,0.2984052274421669,0.8966356226041265,0.8157256786954562,0.23341471732711783,0.0632006515218646,0.468682557659588,0.74824027096975,0.5633391271403543,0.2583453884987251,0.4124377305624498,0.15559892073974124,0.4519133570170373,0.7536166779856199,0.1135340332121697],[0.05370786169491496,0.5018945116461856,0.9790831909390759,0.05433625935237193,0.7149561931437107,0.9078831267803132,0.6764396282077718,0.5185187231580016,0.040737990592927785,-0.05914670752361704,0.6689634481357766,0.5129460844175658,0.6880711065945884,0.24407984966956786,0.4285261841299871,0.05733621330940817],[0.2125469494083886,0.2590958144630992,0.41781202601714257,0.2121425620520497,0.7118269951925196,0.8840135889759204,0.32919450563900754,0.510123908250059,0.5979481852377535,-0.2526924369531779,0.43312356978819033,0.44036026000542344,0.09728943280079431,-0.42800327954049217,0.4511515157519595,0.14220809559370828],[0.9276354336607794,0.6596747918060918,0.7311027322765585,0.2859184309449217,0.09009060038414653,0.6733095976402953,0.395088261389916,0.896267005461944,0.1775322064122563,-0.37823736651998763,0.5607458216765254,0.4083904876639654,0.30908170148731495,0.7013116192878123,0.37455412173776204,0.46697680190539115],[0.25638995874355286,0.0539603717360203,0.6291830925610515,0.9664931226388401,0.35235822481154916,0.03269649878301524,0.9307316064111405,0.48915894654530095,0.8905067096275096,0.9529708004180854,0.5025472151586161,0.15689368809470106,0.9026304085657705,1.0018881533173865,0.18048178054785802,0.09843498970562517],[0.9221572269534666,0.6814935992029213,0.8954428890438082,0.5497655388950201,-0.289977659971374,0.022241469406921368,0.6822923133918682,0.7551151433983259,0.6363267226218938,0.9196095972002324,0.703394959718005,0.8812099615048293,0.12092556637976817,0.7646156315547243,0.6830682733854239,0.21601463552979025],[0.8729066230187615,0.49794906748067375,0.6968165866651491,0.5550162032956828,-0.25271259902812276,0.5622089912288936,0.1969619935470612,0.6370167119888933,0.9313868586691322,0.3966182543992499,1.111885111798078,0.7479437439127666,0.4691017022027604,1.3997278559711694,0.2751442976659488,0.5535976551639927],[0.5997022135817816,0.23368261254653755,0.25999761850078146,0.5664978451635811,0.7129661226195103,0.343304617589074,0.7377070694813823,0.4178532905646298,0.8062335422997557,-0.644990578085035,1.8226782404359443,1.3302826065324467,0.8425434345897105,3.0556087675917336,0.3539538901452831,0.7279643291063161],[0.7040406784955919,0.09236284469384164,0.27495948067488835,0.8359401446525769,-0.5111332501288753,0.4922384204590208,-0.010179862200673058,0.2625767325907147,0.14828918840893368,0.8966640862106524,0.11623561021669895,0.13554745205706978,0.18301720349027936,0.8301724046056105,0.8991886917109602,-0.02364611586317029],[0.23348846370995646,0.7461033866325603,0.9489787876822134,0.41161198244529235,-0.5887997299200669,0.7895164680063517,0.4645387902683514,-0.1959258499186229,0.254542406721743,0.6698280874360732,0.7560985393957919,0.2219455159914326,0.6780855216824417,0.10846384007226993,0.4870066728411419,0.3742650800967573],[0.20415713745693928,0.4836843274033998,0.5033953639095919,0.3402749848112615,-0.4621093443758187,-0.006945650137490064,0.7819726770274864,-0.19877628010947934,0.5043190985764995,0.6691146783106131,-0.004555847685574078,0.4377342603235025,0.8432304750032403,0.5215845057265421,0.26091529686399884,0.21482720384927328],[0.033827216535799245,0.5405203835277687,0.8056427740645371,0.835691488507715,0.47227745206191885,0.4512037707638274,0.9477302625953912,0.34119023376412255,0.3663154799765215,-0.5522110577206861,1.8882334555469131,1.2424317752040999,0.10585150905583124,2.19709663178283,1.005119185787198,0.3878359476499382],[0.029795509303349402,0.8143270673151795,0.44295832251705836,0.4018426632170053,-0.433574729056391,0.38917617296950735,0.12412381429234488,0.15713730251172633,0.7003859177918899,1.1691655756538117,0.6333822647279248,1.00427601454651,0.083177339232873,0.8371655411581636,0.824181611209602,0.16346564659223004],[0.7750480505243676,0.7556415703219093,0.9058684100732382,0.7817854684041595,0.7589930443981692,0.489059758614381,0.5240613215923875,0.020823180399693293,0.36456570402536825,-0.5899949192022409,0.8584243366860153,0.7710041244010433,0.3234664757480656,1.3855683638380336,0.9538751704583821,0.853816898703369],[0.7133464178838551,0.39620977907273336,0.9907155454315344,0.8614162852299009,0.3409803964985492,0.5487387167091796,0.22495431821742712,0.13347231599334008,0.8802927870068689,0.7980722714519352,-1.9117988057459805,0.1464199977599247,0.6775526797420718,-1.4851294067356653,0.6612540928557995,0.53559053423084],[0.47612299111671313,0.8372445452822119,0.3299753534476064,0.7135661534358377,-0.8413488353610373,0.9745964306477838,0.7126536254419106,0.5761088358288431,0.6534023766210653,1.1300539222137682,0.12765388364902688,0.33613304102754965,0.09507518848059665,-1.1602392960698704,0.33726199227638426,0.44826246310518114],[0.5004844961077098,0.8435870146802552,0.6132409404524337,0.09099675295668552,-0.2655805117873986,0.1940316677434511,0.9501758240056464,0.8416784002921419,0.9988701379019734,0.4516992125886328,-0.13372176282008896,-0.036394048410270115,0.8908866912424943,-0.8067195378821147,0.8747364748385938,0.16753247667580548],[0.38948339298694,0.6332091697403571,-0.0636196778887973,0.9137415692272867,-0.3465604390027224,0.6052469532650363,0.33294516074637376,0.7437606698217545,0.781995251542107,0.7791581252531885,0.8742954446212765,1.0665347400420806,0.20791947187670137,-0.306444845698187,-0.2619079503464867,-0.4671793952399764],[0.5522326097434913,0.967239467885816,-0.16375239371535408,0.8334170746698569,-0.025918374147978342,0.028165914257792794,0.8291649994899906,0.29517301479163915,0.4012281646801655,0.5159911649682642,-0.7703106130300869,0.5359356433513168,0.8266308669448111,-0.19822325819296552,0.4897802861007762,0.513589272074331],[0.47922321939893386,0.8487485235705968,0.4671873312307209,0.4886512096143401,-0.30220233051428486,0.7101820786390505,0.5997619211492343,-0.023967948122500037,0.6616130203550423,-0.2104780345479904,1.2360668527530458,1.1927817865173975,0.5537807657716967,1.8748181366575472,0.5155943134013746,0.39263418000689376],[0.4535974930930943,0.504695681222444,0.6712332443231076,0.9723676488854983,0.17855877749976573,0.6372711123720632,0.7369958961404481,0.001127304975489724,0.9916631297286966,-0.4218484444737254,-1.006544551345276,0.5199067721855614,0.7699772759225203,-0.12142526574135369,0.2059746621006486,0.7065434598187468],[0.7630850148514221,0.6757122032051119,0.9206958089803495,0.7564048232135956,-0.2624800405052238,0.8025335544579184,0.8085470504881896,0.1467778459159628,0.14550292740173457,0.8524500310896649,0.2449078448162053,-0.031675662521757214,0.40968456710166584,-0.5532487214303562,0.8024322790246998,0.5871503784036981],[0.612233894080393,-0.1894663489371633,0.6275797197419457,0.8503511623449761,-0.8218023181305213,0.06444914784300779,-0.7075968487284923,-0.15777279865073607,-0.5272519911274205,0.8523729259203602,-0.7740445490731964,0.29011117696594096,-0.6763434366265897,-0.566427637222636,0.6206059493532685,0.6866444275674681],[0.0047838626481092605,0.1973199318140395,0.28914434745206197,0.3903656226326456,0.6917046618388343,0.15624495035332098,0.39952091111148813,0.6131696391889434,0.20367536759005067,0.8616013090064109,0.022215257661520105,0.0591654935740803,0.09874176148773517,0.697559946841766,0.8595979434275314,0.13932074833823327],[0.11773058356079659,0.8223939655723039,0.03993692514230954,0.5396433443948999,-0.013005279397726156,0.5784333135003875,0.5639152853551834,0.34072262289917676,0.6994260609594428,0.7348137274150959,0.06709474593019517,0.5871622041620751,0.3252383184001018,0.5455605121693965,-0.07956406417935791,0.39578411818766374],[0.03768505690438768,1.0241554427304884,0.8021094533069139,0.334798405351085,-0.4801333267568509,0.3559806365927783,0.3253081318945479,-0.19981597917057986,0.3528743647174932,0.4333259378322295,0.6781585667430424,-0.11104705508227268,0.34669509260740333,-0.7776120962354418,0.4540627440534265,0.8541544703641729],[0.5239803750554988,0.3413411533777607,0.11393578853124448,0.7445591640483158,0.3722715642637448,0.48337603897351583,0.007334989350961473,-0.18035075093309466,0.9262404132782812,0.17075604885642093,0.524768635478311,0.43091460644819796,0.2679152331472164,0.6780332737995176,-0.1688080208146285,-0.19795150469665992],[0.7697860072297906,0.06532318052497499,0.302557389632229,0.6672188552540983,-0.147067448029993,0.7939712046346897,0.42251162682641086,0.5987143388938473,0.8229703959332103,-0.49261971372376373,0.3242767292789157,0.6013619501798162,0.5336001081718362,-1.4102845979267362,1.0605421669630655,0.7724495095712638],[0.5627416373856476,-0.38002633134083597,-0.024851658586551584,0.9518275908701707,-0.3641813921472262,0.01691619142208161,-0.1836860165832841,-0.8186352431660318,-0.7641204185686857,0.577846716678987,-2.186682909266796,0.06367979576962844,-0.47600991788490293,-1.3983148809285175,0.9715334651137428,1.6154249628677713],[0.8044546483526147,0.43438823236010493,0.32671782429007057,0.4817328697791851,-0.10468704449536788,0.7179844448184104,0.923156932359175,0.16054690735176005,0.3648219662923324,0.3642825822340358,0.8438859149636779,0.5916689457794129,0.1382096728252563,0.93991391951458,0.0014144675580829112,0.16835874986138083],[0.7541888276704656,-0.7718900720800542,0.07333895313146431,0.7127661564826516,-0.13431123146110588,0.3119891840773601,-0.227646872070009,-0.7652127781003385,-0.3587328962223152,0.3340820906549703,-1.0365461147493686,0.9132702067590989,-0.6742833169667825,-0.6921660598699393,0.2953515928926149,0.5667433104551278],[0.27698095730021155,0.25003248078719886,0.7948968803492269,0.8822141105908483,-0.9598635812496782,0.9564021065166884,1.0143094605982537,0.09515000348409898,0.5872339831557671,1.0986312619043028,-0.1802911779995981,0.5190761634218398,0.44653748002523463,0.5050824430494518,0.48952180051673694,0.017682785103171405],[0.8106208537537796,0.7420082967235319,0.7028347179422492,0.10313212994213977,0.0656123202969799,0.09702083201140785,0.8747767999933757,0.43275389489277244,0.5557779698984283,0.776160507132292,-0.7776813481405364,0.005203534301996904,0.7840497104216941,0.2641682263362914,-0.3216917471623554,-0.5153298719512538],[0.7954156837670556,0.5486579755584823,-0.013724262872743413,0.800141100348076,-0.6289932871004028,0.7408193601922296,0.17305246112484324,0.6909624442822703,0.8690335632104352,-0.4113159081816385,0.8617719466391806,0.9434932066082821,0.6985582925194924,0.015654239704146942,-0.061189422064067384,-0.4374696022730544],[0.7934242218654646,0.18318850401557596,0.5397073199733798,0.5397537487414591,-0.1126433380276325,0.297570194466636,0.5685974533212375,0.17693482703599764,0.6204041292790908,0.9228389888852372,-0.10699927135834328,0.5117293633453086,0.5129225696723155,-1.0637549217230298,0.5382417372718472,0.40911010458579306],[0.7338988324598343,0.5746148198823297,0.7056786423000173,0.8114503439707568,-0.4447739224356981,0.7747924838688167,0.2546372887201912,0.7220898543316896,0.7449916859428619,0.049157788329203686,2.4669007235206206,1.0762137320259828,0.7588796329190745,1.38846764872279,0.1819132713267443,0.2508525081925553],[0.8876176931205774,0.1941758409046356,0.5965196055554607,0.7233011227890249,-1.4660692091053829,0.2744366590601147,-0.8744496609942458,-0.9528255384201002,-0.42694608053382693,0.7999122318756069,-0.41934381503533746,0.17125525911000966,-1.0880289695157492,-1.8069177287393094,0.2815990218323948,1.288162116922227],[0.6989777397590097,0.5502476209381911,0.4544568223315981,0.2877155172391374,-0.7286983969993767,0.6558771517151424,0.8778293848601474,0.11944281074292017,0.3713644286092933,1.0524016027573055,0.6074529611607213,0.7339133334625048,0.8047781900884341,-0.2572173314433125,0.5065991016223275,0.7909562185317478],[0.37492847822667486,0.04295060451167834,0.39200053693717307,0.6407806705096768,-1.4342413323911238,0.3629448022251682,0.766318403488975,-0.34602027875546726,0.3501934439845466,1.0734638743747709,-1.0906608345120832,-0.04832611440723104,0.06947248865449226,-1.232406082168436,0.069257941974235,0.9949845058657668],[0.4467161320410575,0.3566840362405967,0.8198076411816847,0.38941997773345866,-0.11919421340748831,0.451279746865782,0.6567722226245436,0.8756643281303136,0.6444048050295316,0.12605973522773428,2.45162895111445,1.289994559935274,0.20502174457154929,1.1523559870559013,0.5914055703822871,0.5108843770213694],[0.9710313891397593,0.057960593745474624,0.01689440465196299,0.5666990722490592,-0.05502752948798161,0.5899970912905836,0.820971344381599,0.9081742318263242,0.7036911579463112,0.3072701225052655,0.7167097869477743,0.5850137090955401,0.7723639285048763,-0.16102615532555342,0.925067576862352,0.5537900051113708],[0.790431543124453,0.5463738336597973,0.21080597040828442,0.4797227095995642,0.6412949753189249,0.3608348976866703,0.8375091226109191,0.16787115665970798,0.8760633520448594,0.7015966412548521,0.3492344330325814,0.29099250463034554,0.8723576494176455,0.5424487568204179,0.07935487881743364,0.0532559820497337],[0.3273439764803194,0.7759565375277117,0.12441040251188064,0.5603145242364113,0.6545035775987271,0.8867867012394197,0.04671558416365451,0.24284447396168016,0.1711601373520197,1.0113071123388961,-0.720736719831611,-0.09989752085894167,0.6456121526517234,-0.28771181347017,0.22177984792844208,0.22600361137816158],[0.9443145806494966,0.8564516295602304,0.16084968038443037,0.590218301246037,0.5655088940346816,0.07216131880485308,0.7196165382232769,0.19830485665923495,0.44844946699862037,-0.7011212301935066,-0.16094378904453457,0.2143956654355525,0.9516945549587497,-0.527410011656841,0.3255281001145998,0.5019717627937383],[0.7379974038968061,0.6674524228136536,0.3203666673988681,0.48338212342417813,0.29841418770361267,0.5391330522178799,-0.004952362469359023,-0.06068424444415884,0.834426930183389,-0.5698232683605872,-0.5345980536573817,0.6036908695122919,0.028163508625780587,-0.677861282516705,0.7113103442808469,1.494620249935891],[0.9525018295700945,0.5302532149472406,0.27483161519768395,0.6832207264857602,0.7643586470379212,0.01137273043289364,0.19055903300610114,0.12697175744516878,0.3228459554440151,-0.7356002724966374,0.1185355285972477,0.23508867585415652,0.5525761530488981,0.3966011622337161,0.2788401803412309,0.9712866077726119],[0.7419991676381227,0.35881956065489884,0.6106873682210514,0.9794955731989782,0.3601713079198898,0.08660203648178855,0.21127563362865642,0.36678890224117056,0.7384475782403278,0.11635346960142423,0.735482302675793,0.0926292871781571,0.9695431645529285,0.26516698277885453,0.22485206418584147,0.6312297907450246],[0.5882708779618059,0.2649820077604014,0.8705273333522594,0.9528887402833611,0.1244084254585589,0.8411829378237997,0.6658281824338932,0.33732990493440307,0.841876300309933,0.30939468612532117,0.05399631526918036,0.29888307135830716,0.5321770374474861,0.7783963874955807,0.8809480480418743,0.3603515672400134]],[[0.05914751395539919,0.6027387534560636,0.8076074274706551,0.6087031027443249,0.4624282156774069,0.8155638029693206,0.9623681595698454,0.19325874123060816],[0.8186542409584026,0.8902908399306612,0.02145845046673911,0.18584431572132287,0.7322249538095927,0.329245609344505,0.09346057130528584,0.512407105577049],[0.43974400930814117,-0.2798246174801113,11.943463348673392,0.9544957698091531,-6.3763459413215715,7.620065900706328,-5.419170448411295,0.7414260719483807],[1.1461051486258598,-2.3374748192133628,13.468173277557286,0.38586240483515377,-7.267583363180531,9.348500030873623,-6.343326987749751,-0.706487835117139],[0.832320783673766,0.04914837757516046,11.276217193001493,0.7597516324054124,-6.524079339913961,7.306509922752411,-5.351629270142876,0.4221757150193832],[0.010902827181373392,0.3020240807516973,-3.7715784914679173,0.6637552514188573,1.6436966284376393,-1.711572642589965,1.690169239429782,0.19326854776639604],[0.3102603979054115,0.6100484561989128,-3.567570323384244,0.8236433184041309,2.1298846618827065,-1.2383621080090237,1.4395607461838942,-0.045518767491780104],[0.861689218347335,0.7643485918121781,-5.541272367267352,0.6692731218456848,1.648379312136961,-2.366247113711447,0.8168791004514754,0.27512403667639806],[0.33749646979744624,0.9764798062453923,4.673204209538755,0.4533531311829674,-4.645546417386817,4.242593267891194,-5.0651738062934415,0.22899016384976428],[0.09278915173440083,-2.775814087043995,-18.627913013175895,0.6395692068682899,5.762720023029062,-7.2737611131965725,1.0558407264860632,-4.836996232160716],[0.7267302705009772,13.96854209875423,1.9984427260802717,0.2969202841207984,24.455368730661462,-24.630802798663638,25.576272129258935,13.787746537152985],[0.20310209276365956,-2.281523242237946,-14.23412534614311,0.77661111552228,4.310090516120706,-5.5116190923052875,0.19243864184249004,-4.187988788882667],[0.8641228656330043,1.3777170714161413,1.4700919886001824,0.4427073075209717,-3.4449554094788453,2.3670791234870157,-4.846955642538326,-0.858973923817998],[-1.9238672845861766E-4,1.8007895370961318,-12.121165433688585,0.9877464620564977,4.805107231489133,-7.025261034555592,2.1575350342198805,-1.1570618927935716],[1.107468538986169,0.5291757437192146,10.036854918793058,0.8505306273444562,-6.291444711502203,7.019798876424371,-5.974913790589551,0.02999858385481661],[0.48696478563689893,-6.4468995348542935,4.028948553951457,0.6481900193582594,-0.05025871686474724,7.928865029984358,-0.5067576948806998,-3.7171836425329654]],[[-3.7379971951352613,1.4400300139880153,-0.3240505228015885],[-0.46970001287905877,-17.938574454465275,1.1346729174970394],[-7.660591631388202,4.308748945522071,0.9260611634364478],[2.8151023281161174,-0.9479282922045781,-2.37077823267774],[11.027955578450591,71.9449725714831,-8.052925246356118],[-5.095114324248992,-0.5699450018233007,0.00844484566311616],[-0.5215079437614643,-48.305662919122334,4.225540507126371],[-5.856008118966748,-17.77308667115434,5.400022395713941]]],"layerOutputs":[[0.0,0.0,0.0,0.0,0.0,0.0,0.0,0.0,0.0,0.0,0.0,0.0,0.0,0.0,0.0,1.0,1.0,1.0,0.0,0.0,0.0,1.0,0.0,0.0,0.0,1.0,0.0,0.0,1.0,0.0,1.0,0.0,0.0,0.0,0.0,1.0,0.0,1.0,0.0,0.0,0.0,0.0,0.0,1.0,0.0,1.0,0.0,0.0,0.0],[0.9986167094766477,0.996746015372315,0.9922737945676527,0.9986864315808861,0.18573805687846806,0.9984108308248256,0.9862147441847401,0.8868177602774207,0.9986556400262889,0.9912393734176075,0.03015364923118535,0.9807920618705515,0.9715075305084758,6.521592410554986E-4,0.9919543917269358,0.9986582225284966],[0.9988491821229034,4.5301179086740235E-4,0.9765140023856717,0.9997008623921144,6.151148972654564E-6,0.9999999998173659,2.754373594194326E-10,9.434867552382536E-6],[1.377244068983707E-6,0.9840227818219229,0.1442445319240014]]}